digraph Tree {
node [shape=box] ;
0 [label="X[15] <= 182.0\nmse = 59593867.767\nsamples = 143\nvalue = 13013.207"] ;
1 [label="X[12] <= 2461.5\nmse = 21295067.222\nsamples = 132\nvalue = 11228.872"] ;
0 -> 1 [labeldistance=2.5, labelangle=45, headlabel="True"] ;
2 [label="X[12] <= 2291.5\nmse = 3693227.086\nsamples = 76\nvalue = 8052.421"] ;
1 -> 2 ;
3 [label="X[12] <= 1947.5\nmse = 1046359.232\nsamples = 53\nvalue = 7167.887"] ;
2 -> 3 ;
4 [label="X[18] <= 3.26\nmse = 362608.125\nsamples = 16\nvalue = 6037.5"] ;
3 -> 4 ;
5 [label="X[5] <= 1.5\nmse = 268016.0\nsamples = 10\nvalue = 5774.0"] ;
4 -> 5 ;
6 [label="mse = 0.0\nsamples = 1\nvalue = 6695.0"] ;
5 -> 6 ;
7 [label="X[8] <= 94.1\nmse = 193074.444\nsamples = 9\nvalue = 5671.667"] ;
5 -> 7 ;
8 [label="X[23] <= 39.5\nmse = 162569.688\nsamples = 8\nvalue = 5593.75"] ;
7 -> 8 ;
9 [label="X[23] <= 34.5\nmse = 254072.0\nsamples = 3\nvalue = 5889.0"] ;
8 -> 9 ;
10 [label="mse = 0.0\nsamples = 1\nvalue = 5195.0"] ;
9 -> 10 ;
11 [label="X[11] <= 52.45\nmse = 19881.0\nsamples = 2\nvalue = 6236.0"] ;
9 -> 11 ;
12 [label="mse = 0.0\nsamples = 1\nvalue = 6377.0"] ;
11 -> 12 ;
13 [label="mse = 0.0\nsamples = 1\nvalue = 6095.0"] ;
11 -> 13 ;
14 [label="X[11] <= 52.9\nmse = 23982.64\nsamples = 5\nvalue = 5416.6"] ;
8 -> 14 ;
15 [label="X[10] <= 63.9\nmse = 7933.5\nsamples = 4\nvalue = 5483.0"] ;
14 -> 15 ;
16 [label="mse = 0.0\nsamples = 2\nvalue = 5572.0"] ;
15 -> 16 ;
17 [label="X[18] <= 3.15\nmse = 25.0\nsamples = 2\nvalue = 5394.0"] ;
15 -> 17 ;
18 [label="mse = 0.0\nsamples = 1\nvalue = 5399.0"] ;
17 -> 18 ;
19 [label="mse = 0.0\nsamples = 1\nvalue = 5389.0"] ;
17 -> 19 ;
20 [label="mse = 0.0\nsamples = 1\nvalue = 5151.0"] ;
14 -> 20 ;
21 [label="mse = 0.0\nsamples = 1\nvalue = 6295.0"] ;
7 -> 21 ;
22 [label="X[12] <= 1903.5\nmse = 211673.889\nsamples = 6\nvalue = 6476.667"] ;
4 -> 22 ;
23 [label="X[16] <= 3.0\nmse = 326723.556\nsamples = 3\nvalue = 6277.667"] ;
22 -> 23 ;
24 [label="mse = 0.0\nsamples = 1\nvalue = 5499.0"] ;
23 -> 24 ;
25 [label="X[23] <= 46.0\nmse = 35344.0\nsamples = 2\nvalue = 6667.0"] ;
23 -> 25 ;
26 [label="mse = 0.0\nsamples = 1\nvalue = 6855.0"] ;
25 -> 26 ;
27 [label="mse = 0.0\nsamples = 1\nvalue = 6479.0"] ;
25 -> 27 ;
28 [label="X[4] <= 3.0\nmse = 17422.222\nsamples = 3\nvalue = 6675.667"] ;
22 -> 28 ;
29 [label="X[5] <= 1.5\nmse = 3600.0\nsamples = 2\nvalue = 6589.0"] ;
28 -> 29 ;
30 [label="mse = 0.0\nsamples = 1\nvalue = 6649.0"] ;
29 -> 30 ;
31 [label="mse = 0.0\nsamples = 1\nvalue = 6529.0"] ;
29 -> 31 ;
32 [label="mse = 0.0\nsamples = 1\nvalue = 6849.0"] ;
28 -> 32 ;
33 [label="X[22] <= 29.5\nmse = 550543.344\nsamples = 37\nvalue = 7656.703"] ;
3 -> 33 ;
34 [label="X[5] <= 1.5\nmse = 315399.265\nsamples = 14\nvalue = 8304.857"] ;
33 -> 34 ;
35 [label="X[18] <= 3.235\nmse = 193539.76\nsamples = 5\nvalue = 8760.8"] ;
34 -> 35 ;
36 [label="X[18] <= 3.055\nmse = 400.0\nsamples = 2\nvalue = 9278.0"] ;
35 -> 36 ;
37 [label="mse = 0.0\nsamples = 1\nvalue = 9258.0"] ;
36 -> 37 ;
38 [label="mse = 0.0\nsamples = 1\nvalue = 9298.0"] ;
36 -> 38 ;
39 [label="X[22] <= 25.5\nmse = 25082.0\nsamples = 3\nvalue = 8416.0"] ;
35 -> 39 ;
40 [label="mse = 0.0\nsamples = 1\nvalue = 8558.0"] ;
39 -> 40 ;
41 [label="X[12] <= 2243.5\nmse = 22500.0\nsamples = 2\nvalue = 8345.0"] ;
39 -> 41 ;
42 [label="mse = 0.0\nsamples = 1\nvalue = 8195.0"] ;
41 -> 42 ;
43 [label="mse = 0.0\nsamples = 1\nvalue = 8495.0"] ;
41 -> 43 ;
44 [label="X[23] <= 32.5\nmse = 203446.247\nsamples = 9\nvalue = 8051.556"] ;
34 -> 44 ;
45 [label="X[13] <= 1.5\nmse = 41660.64\nsamples = 5\nvalue = 7775.6"] ;
44 -> 45 ;
46 [label="X[19] <= 8.3\nmse = 773.556\nsamples = 3\nvalue = 7937.333"] ;
45 -> 46 ;
47 [label="mse = 0.0\nsamples = 2\nvalue = 7957.0"] ;
46 -> 47 ;
48 [label="mse = 0.0\nsamples = 1\nvalue = 7898.0"] ;
46 -> 48 ;
49 [label="X[0] <= 1.0\nmse = 4900.0\nsamples = 2\nvalue = 7533.0"] ;
45 -> 49 ;
50 [label="mse = 0.0\nsamples = 1\nvalue = 7463.0"] ;
49 -> 50 ;
51 [label="mse = 0.0\nsamples = 1\nvalue = 7603.0"] ;
49 -> 51 ;
52 [label="X[12] <= 2262.5\nmse = 191502.25\nsamples = 4\nvalue = 8396.5"] ;
44 -> 52 ;
53 [label="X[11] <= 53.05\nmse = 38490.889\nsamples = 3\nvalue = 8163.667"] ;
52 -> 53 ;
54 [label="X[12] <= 2163.0\nmse = 3600.0\nsamples = 2\nvalue = 8298.0"] ;
53 -> 54 ;
55 [label="mse = 0.0\nsamples = 1\nvalue = 8358.0"] ;
54 -> 55 ;
56 [label="mse = 0.0\nsamples = 1\nvalue = 8238.0"] ;
54 -> 56 ;
57 [label="mse = 0.0\nsamples = 1\nvalue = 7895.0"] ;
53 -> 57 ;
58 [label="mse = 0.0\nsamples = 1\nvalue = 9095.0"] ;
52 -> 58 ;
59 [label="X[15] <= 94.5\nmse = 282305.97\nsamples = 23\nvalue = 7262.174"] ;
33 -> 59 ;
60 [label="X[10] <= 63.85\nmse = 193812.05\nsamples = 11\nvalue = 6916.364"] ;
59 -> 60 ;
61 [label="X[5] <= 1.5\nmse = 181591.388\nsamples = 7\nvalue = 6709.429"] ;
60 -> 61 ;
62 [label="X[1] <= 11.0\nmse = 186864.222\nsamples = 3\nvalue = 6997.667"] ;
61 -> 62 ;
63 [label="mse = 210222.25\nsamples = 2\nvalue = 7150.5"] ;
62 -> 63 ;
64 [label="mse = 0.0\nsamples = 1\nvalue = 6692.0"] ;
62 -> 64 ;
65 [label="X[12] <= 2160.0\nmse = 68592.688\nsamples = 4\nvalue = 6493.25"] ;
61 -> 65 ;
66 [label="X[20] <= 65.0\nmse = 11273.556\nsamples = 3\nvalue = 6351.667"] ;
65 -> 66 ;
67 [label="X[12] <= 2027.5\nmse = 5625.0\nsamples = 2\nvalue = 6413.0"] ;
66 -> 67 ;
68 [label="mse = 0.0\nsamples = 1\nvalue = 6488.0"] ;
67 -> 68 ;
69 [label="mse = 0.0\nsamples = 1\nvalue = 6338.0"] ;
67 -> 69 ;
70 [label="mse = 0.0\nsamples = 1\nvalue = 6229.0"] ;
66 -> 70 ;
71 [label="mse = 0.0\nsamples = 1\nvalue = 6918.0"] ;
65 -> 71 ;
72 [label="X[4] <= 3.0\nmse = 9116.75\nsamples = 4\nvalue = 7278.5"] ;
60 -> 72 ;
73 [label="mse = 0.0\nsamples = 1\nvalue = 7129.0"] ;
72 -> 73 ;
74 [label="X[19] <= 9.1\nmse = 2222.222\nsamples = 3\nvalue = 7328.333"] ;
72 -> 74 ;
75 [label="mse = 0.0\nsamples = 1\nvalue = 7395.0"] ;
74 -> 75 ;
76 [label="mse = 0.0\nsamples = 2\nvalue = 7295.0"] ;
74 -> 76 ;
77 [label="X[0] <= 1.5\nmse = 153321.639\nsamples = 12\nvalue = 7579.167"] ;
59 -> 77 ;
78 [label="X[22] <= 30.5\nmse = 110039.84\nsamples = 10\nvalue = 7470.6"] ;
77 -> 78 ;
79 [label="X[5] <= 1.5\nmse = 16900.0\nsamples = 2\nvalue = 7068.0"] ;
78 -> 79 ;
80 [label="mse = 0.0\nsamples = 1\nvalue = 6938.0"] ;
79 -> 80 ;
81 [label="mse = 0.0\nsamples = 1\nvalue = 7198.0"] ;
79 -> 81 ;
82 [label="X[12] <= 2026.0\nmse = 82672.688\nsamples = 8\nvalue = 7571.25"] ;
78 -> 82 ;
83 [label="X[21] <= 5000.0\nmse = 20468.75\nsamples = 4\nvalue = 7311.5"] ;
82 -> 83 ;
84 [label="mse = 0.0\nsamples = 1\nvalue = 7099.0"] ;
83 -> 84 ;
85 [label="X[4] <= 3.0\nmse = 7222.222\nsamples = 3\nvalue = 7382.333"] ;
83 -> 85 ;
86 [label="mse = 0.0\nsamples = 1\nvalue = 7299.0"] ;
85 -> 86 ;
87 [label="X[11] <= 54.0\nmse = 5625.0\nsamples = 2\nvalue = 7424.0"] ;
85 -> 87 ;
88 [label="mse = 0.0\nsamples = 1\nvalue = 7349.0"] ;
87 -> 88 ;
89 [label="mse = 0.0\nsamples = 1\nvalue = 7499.0"] ;
87 -> 89 ;
90 [label="X[11] <= 53.4\nmse = 9936.5\nsamples = 4\nvalue = 7831.0"] ;
82 -> 90 ;
91 [label="X[20] <= 69.5\nmse = 704.667\nsamples = 3\nvalue = 7775.0"] ;
90 -> 91 ;
92 [label="X[18] <= 3.32\nmse = 30.25\nsamples = 2\nvalue = 7793.5"] ;
91 -> 92 ;
93 [label="mse = 0.0\nsamples = 1\nvalue = 7799.0"] ;
92 -> 93 ;
94 [label="mse = 0.0\nsamples = 1\nvalue = 7788.0"] ;
92 -> 94 ;
95 [label="mse = 0.0\nsamples = 1\nvalue = 7738.0"] ;
91 -> 95 ;
96 [label="mse = 0.0\nsamples = 1\nvalue = 7999.0"] ;
90 -> 96 ;
97 [label="X[20] <= 60.5\nmse = 16129.0\nsamples = 2\nvalue = 8122.0"] ;
77 -> 97 ;
98 [label="mse = 0.0\nsamples = 1\nvalue = 7995.0"] ;
97 -> 98 ;
99 [label="mse = 0.0\nsamples = 1\nvalue = 8249.0"] ;
97 -> 99 ;
100 [label="X[1] <= 5.0\nmse = 3835044.212\nsamples = 23\nvalue = 10090.696"] ;
2 -> 100 ;
101 [label="X[12] <= 2366.0\nmse = 1537600.0\nsamples = 2\nvalue = 15190.0"] ;
100 -> 101 ;
102 [label="mse = 0.0\nsamples = 1\nvalue = 13950.0"] ;
101 -> 102 ;
103 [label="mse = 0.0\nsamples = 1\nvalue = 16430.0"] ;
101 -> 103 ;
104 [label="X[10] <= 65.45\nmse = 1341527.283\nsamples = 21\nvalue = 9605.048"] ;
100 -> 104 ;
105 [label="X[20] <= 92.5\nmse = 776099.654\nsamples = 9\nvalue = 8757.111"] ;
104 -> 105 ;
106 [label="X[8] <= 96.95\nmse = 503392.556\nsamples = 6\nvalue = 8294.667"] ;
105 -> 106 ;
107 [label="X[12] <= 2346.5\nmse = 392758.4\nsamples = 5\nvalue = 8107.0"] ;
106 -> 107 ;
108 [label="X[10] <= 65.3\nmse = 29929.0\nsamples = 2\nvalue = 8672.0"] ;
107 -> 108 ;
109 [label="mse = 0.0\nsamples = 1\nvalue = 8845.0"] ;
108 -> 109 ;
110 [label="mse = 0.0\nsamples = 1\nvalue = 8499.0"] ;
108 -> 110 ;
111 [label="X[12] <= 2385.0\nmse = 279950.222\nsamples = 3\nvalue = 7730.333"] ;
107 -> 111 ;
112 [label="mse = 0.0\nsamples = 1\nvalue = 6989.0"] ;
111 -> 112 ;
113 [label="X[1] <= 17.0\nmse = 7744.0\nsamples = 2\nvalue = 8101.0"] ;
111 -> 113 ;
114 [label="mse = 0.0\nsamples = 1\nvalue = 8189.0"] ;
113 -> 114 ;
115 [label="mse = 0.0\nsamples = 1\nvalue = 8013.0"] ;
113 -> 115 ;
116 [label="mse = 0.0\nsamples = 1\nvalue = 9233.0"] ;
106 -> 116 ;
117 [label="X[10] <= 65.3\nmse = 38384.667\nsamples = 3\nvalue = 9682.0"] ;
105 -> 117 ;
118 [label="X[17] <= 3.285\nmse = 30.25\nsamples = 2\nvalue = 9543.5"] ;
117 -> 118 ;
119 [label="mse = 0.0\nsamples = 1\nvalue = 9538.0"] ;
118 -> 119 ;
120 [label="mse = 0.0\nsamples = 1\nvalue = 9549.0"] ;
118 -> 120 ;
121 [label="mse = 0.0\nsamples = 1\nvalue = 9959.0"] ;
117 -> 121 ;
122 [label="X[22] <= 21.0\nmse = 821915.333\nsamples = 12\nvalue = 10241.0"] ;
104 -> 122 ;
123 [label="mse = 0.0\nsamples = 1\nvalue = 11845.0"] ;
122 -> 123 ;
124 [label="X[12] <= 2412.0\nmse = 641479.603\nsamples = 11\nvalue = 10095.182"] ;
122 -> 124 ;
125 [label="X[11] <= 54.3\nmse = 521980.694\nsamples = 7\nvalue = 9731.143"] ;
124 -> 125 ;
126 [label="X[22] <= 25.5\nmse = 15625.0\nsamples = 2\nvalue = 10470.0"] ;
125 -> 126 ;
127 [label="mse = 0.0\nsamples = 1\nvalue = 10345.0"] ;
126 -> 127 ;
128 [label="mse = 0.0\nsamples = 1\nvalue = 10595.0"] ;
126 -> 128 ;
129 [label="X[21] <= 5150.0\nmse = 418813.44\nsamples = 5\nvalue = 9435.6"] ;
125 -> 129 ;
130 [label="X[8] <= 100.6\nmse = 425726.688\nsamples = 4\nvalue = 9295.75"] ;
129 -> 130 ;
131 [label="X[19] <= 15.8\nmse = 513888.889\nsamples = 3\nvalue = 9411.667"] ;
130 -> 131 ;
132 [label="mse = 765625.0\nsamples = 2\nvalue = 9370.0"] ;
131 -> 132 ;
133 [label="mse = 0.0\nsamples = 1\nvalue = 9495.0"] ;
131 -> 133 ;
134 [label="mse = 0.0\nsamples = 1\nvalue = 8948.0"] ;
130 -> 134 ;
135 [label="mse = 0.0\nsamples = 1\nvalue = 9995.0"] ;
129 -> 135 ;
136 [label="X[12] <= 2450.5\nmse = 212829.188\nsamples = 4\nvalue = 10732.25"] ;
124 -> 136 ;
137 [label="X[11] <= 54.4\nmse = 165550.889\nsamples = 3\nvalue = 10560.333"] ;
136 -> 137 ;
138 [label="mse = 0.0\nsamples = 1\nvalue = 9988.0"] ;
137 -> 138 ;
139 [label="X[2] <= 1.5\nmse = 2652.25\nsamples = 2\nvalue = 10846.5"] ;
137 -> 139 ;
140 [label="mse = 0.0\nsamples = 1\nvalue = 10898.0"] ;
139 -> 140 ;
141 [label="mse = 0.0\nsamples = 1\nvalue = 10795.0"] ;
139 -> 141 ;
142 [label="mse = 0.0\nsamples = 1\nvalue = 11248.0"] ;
136 -> 142 ;
143 [label="X[14] <= 4.5\nmse = 12906074.904\nsamples = 56\nvalue = 15539.771"] ;
1 -> 143 ;
144 [label="X[8] <= 103.8\nmse = 8298737.897\nsamples = 36\nvalue = 14089.639"] ;
143 -> 144 ;
145 [label="X[22] <= 22.0\nmse = 4862024.787\nsamples = 22\nvalue = 12715.591"] ;
144 -> 145 ;
146 [label="X[1] <= 12.5\nmse = 2610531.076\nsamples = 12\nvalue = 14129.917"] ;
145 -> 146 ;
147 [label="X[19] <= 7.5\nmse = 2266613.04\nsamples = 5\nvalue = 15021.4"] ;
146 -> 147 ;
148 [label="mse = 0.0\nsamples = 1\nvalue = 12964.0"] ;
147 -> 148 ;
149 [label="X[1] <= 11.5\nmse = 1510486.688\nsamples = 4\nvalue = 15535.75"] ;
147 -> 149 ;
150 [label="X[11] <= 49.2\nmse = 1598172.222\nsamples = 3\nvalue = 15213.333"] ;
149 -> 150 ;
151 [label="mse = 2257506.25\nsamples = 2\nvalue = 14997.5"] ;
150 -> 151 ;
152 [label="mse = 0.0\nsamples = 1\nvalue = 15645.0"] ;
150 -> 152 ;
153 [label="mse = 0.0\nsamples = 1\nvalue = 16503.0"] ;
149 -> 153 ;
154 [label="X[12] <= 2701.0\nmse = 1883032.694\nsamples = 7\nvalue = 13493.143"] ;
146 -> 154 ;
155 [label="X[12] <= 2676.5\nmse = 25600.0\nsamples = 2\nvalue = 12010.0"] ;
154 -> 155 ;
156 [label="mse = 0.0\nsamples = 1\nvalue = 11850.0"] ;
155 -> 156 ;
157 [label="mse = 0.0\nsamples = 1\nvalue = 12170.0"] ;
155 -> 157 ;
158 [label="X[22] <= 20.0\nmse = 1394166.64\nsamples = 5\nvalue = 14086.4"] ;
154 -> 158 ;
159 [label="X[12] <= 2879.5\nmse = 717050.0\nsamples = 3\nvalue = 13294.0"] ;
158 -> 159 ;
160 [label="X[6] <= 1.5\nmse = 4556.25\nsamples = 2\nvalue = 12696.5"] ;
159 -> 160 ;
161 [label="mse = 0.0\nsamples = 1\nvalue = 12629.0"] ;
160 -> 161 ;
162 [label="mse = 0.0\nsamples = 1\nvalue = 12764.0"] ;
160 -> 162 ;
163 [label="mse = 0.0\nsamples = 1\nvalue = 14489.0"] ;
159 -> 163 ;
164 [label="X[17] <= 3.04\nmse = 55225.0\nsamples = 2\nvalue = 15275.0"] ;
158 -> 164 ;
165 [label="mse = 0.0\nsamples = 1\nvalue = 15040.0"] ;
164 -> 165 ;
166 [label="mse = 0.0\nsamples = 1\nvalue = 15510.0"] ;
164 -> 166 ;
167 [label="X[17] <= 3.25\nmse = 2282979.44\nsamples = 10\nvalue = 11018.4"] ;
145 -> 167 ;
168 [label="X[22] <= 28.5\nmse = 202500.0\nsamples = 2\nvalue = 13395.0"] ;
167 -> 168 ;
169 [label="mse = 0.0\nsamples = 1\nvalue = 12945.0"] ;
168 -> 169 ;
170 [label="mse = 0.0\nsamples = 1\nvalue = 13845.0"] ;
168 -> 170 ;
171 [label="X[12] <= 2614.5\nmse = 1038028.188\nsamples = 8\nvalue = 10424.25"] ;
167 -> 171 ;
172 [label="X[15] <= 115.0\nmse = 643173.44\nsamples = 5\nvalue = 9820.6"] ;
171 -> 172 ;
173 [label="mse = 0.0\nsamples = 1\nvalue = 11259.0"] ;
172 -> 173 ;
174 [label="X[15] <= 139.0\nmse = 157406.0\nsamples = 4\nvalue = 9461.0"] ;
172 -> 174 ;
175 [label="X[20] <= 89.0\nmse = 34969.0\nsamples = 2\nvalue = 9108.0"] ;
174 -> 175 ;
176 [label="mse = 0.0\nsamples = 1\nvalue = 8921.0"] ;
175 -> 176 ;
177 [label="mse = 0.0\nsamples = 1\nvalue = 9295.0"] ;
175 -> 177 ;
178 [label="X[12] <= 2543.5\nmse = 30625.0\nsamples = 2\nvalue = 9814.0"] ;
174 -> 178 ;
179 [label="mse = 0.0\nsamples = 1\nvalue = 9639.0"] ;
178 -> 179 ;
180 [label="mse = 0.0\nsamples = 1\nvalue = 9989.0"] ;
178 -> 180 ;
181 [label="X[20] <= 100.5\nmse = 76593.556\nsamples = 3\nvalue = 11430.333"] ;
171 -> 181 ;
182 [label="mse = 0.0\nsamples = 1\nvalue = 11048.0"] ;
181 -> 182 ;
183 [label="X[20] <= 113.5\nmse = 5256.25\nsamples = 2\nvalue = 11621.5"] ;
181 -> 183 ;
184 [label="mse = 0.0\nsamples = 1\nvalue = 11694.0"] ;
183 -> 184 ;
185 [label="mse = 0.0\nsamples = 1\nvalue = 11549.0"] ;
183 -> 185 ;
186 [label="X[20] <= 117.0\nmse = 6070194.122\nsamples = 14\nvalue = 16248.857"] ;
144 -> 186 ;
187 [label="X[22] <= 23.5\nmse = 5162055.89\nsamples = 10\nvalue = 15278.9"] ;
186 -> 187 ;
188 [label="X[12] <= 3054.5\nmse = 2920481.25\nsamples = 6\nvalue = 13817.5"] ;
187 -> 188 ;
189 [label="X[10] <= 67.8\nmse = 400272.222\nsamples = 3\nvalue = 12751.667"] ;
188 -> 189 ;
190 [label="X[12] <= 2973.0\nmse = 56406.25\nsamples = 2\nvalue = 13177.5"] ;
189 -> 190 ;
191 [label="mse = 0.0\nsamples = 1\nvalue = 12940.0"] ;
190 -> 191 ;
192 [label="mse = 0.0\nsamples = 1\nvalue = 13415.0"] ;
190 -> 192 ;
193 [label="mse = 0.0\nsamples = 1\nvalue = 11900.0"] ;
189 -> 193 ;
194 [label="X[12] <= 3152.5\nmse = 3168688.889\nsamples = 3\nvalue = 14883.333"] ;
188 -> 194 ;
195 [label="X[20] <= 96.0\nmse = 275625.0\nsamples = 2\nvalue = 16105.0"] ;
194 -> 195 ;
196 [label="mse = 0.0\nsamples = 1\nvalue = 15580.0"] ;
195 -> 196 ;
197 [label="mse = 0.0\nsamples = 1\nvalue = 16630.0"] ;
195 -> 197 ;
198 [label="mse = 0.0\nsamples = 1\nvalue = 12440.0"] ;
194 -> 198 ;
199 [label="X[22] <= 26.5\nmse = 515580.5\nsamples = 4\nvalue = 17471.0"] ;
187 -> 199 ;
200 [label="X[11] <= 58.1\nmse = 78400.0\nsamples = 2\nvalue = 16795.0"] ;
199 -> 200 ;
201 [label="mse = 0.0\nsamples = 1\nvalue = 16515.0"] ;
200 -> 201 ;
202 [label="mse = 0.0\nsamples = 1\nvalue = 17075.0"] ;
200 -> 202 ;
203 [label="X[22] <= 29.5\nmse = 38809.0\nsamples = 2\nvalue = 18147.0"] ;
199 -> 203 ;
204 [label="mse = 0.0\nsamples = 1\nvalue = 17950.0"] ;
203 -> 204 ;
205 [label="mse = 0.0\nsamples = 1\nvalue = 18344.0"] ;
203 -> 205 ;
206 [label="X[12] <= 3047.0\nmse = 108392.188\nsamples = 4\nvalue = 18673.75"] ;
186 -> 206 ;
207 [label="X[19] <= 7.75\nmse = 4900.0\nsamples = 2\nvalue = 18350.0"] ;
206 -> 207 ;
208 [label="mse = 0.0\nsamples = 1\nvalue = 18420.0"] ;
207 -> 208 ;
209 [label="mse = 0.0\nsamples = 1\nvalue = 18280.0"] ;
207 -> 209 ;
210 [label="X[17] <= 3.7\nmse = 2256.25\nsamples = 2\nvalue = 18997.5"] ;
206 -> 210 ;
211 [label="mse = 0.0\nsamples = 1\nvalue = 18950.0"] ;
210 -> 211 ;
212 [label="mse = 0.0\nsamples = 1\nvalue = 19045.0"] ;
210 -> 212 ;
213 [label="X[20] <= 146.0\nmse = 10600752.842\nsamples = 20\nvalue = 18150.008"] ;
143 -> 213 ;
214 [label="X[12] <= 2983.0\nmse = 7868402.469\nsamples = 9\nvalue = 20705.556"] ;
213 -> 214 ;
215 [label="X[19] <= 8.75\nmse = 4765304.0\nsamples = 5\nvalue = 18791.0"] ;
214 -> 215 ;
216 [label="X[0] <= 1.5\nmse = 2331622.222\nsamples = 3\nvalue = 17293.333"] ;
215 -> 216 ;
217 [label="X[5] <= 2.0\nmse = 366025.0\nsamples = 2\nvalue = 18315.0"] ;
216 -> 217 ;
218 [label="mse = 0.0\nsamples = 1\nvalue = 17710.0"] ;
217 -> 218 ;
219 [label="mse = 0.0\nsamples = 1\nvalue = 18920.0"] ;
217 -> 219 ;
220 [label="mse = 0.0\nsamples = 1\nvalue = 15250.0"] ;
216 -> 220 ;
221 [label="X[4] <= 3.0\nmse = 4556.25\nsamples = 2\nvalue = 21037.5"] ;
215 -> 221 ;
222 [label="mse = 0.0\nsamples = 1\nvalue = 20970.0"] ;
221 -> 222 ;
223 [label="mse = 0.0\nsamples = 1\nvalue = 21105.0"] ;
221 -> 223 ;
224 [label="X[1] <= 14.5\nmse = 1437992.188\nsamples = 4\nvalue = 23098.75"] ;
214 -> 224 ;
225 [label="X[20] <= 130.5\nmse = 119025.0\nsamples = 2\nvalue = 24220.0"] ;
224 -> 225 ;
226 [label="mse = 0.0\nsamples = 1\nvalue = 24565.0"] ;
225 -> 226 ;
227 [label="mse = 0.0\nsamples = 1\nvalue = 23875.0"] ;
225 -> 227 ;
228 [label="X[3] <= 1.5\nmse = 242556.25\nsamples = 2\nvalue = 21977.5"] ;
224 -> 228 ;
229 [label="mse = 0.0\nsamples = 1\nvalue = 21485.0"] ;
228 -> 229 ;
230 [label="mse = 0.0\nsamples = 1\nvalue = 22470.0"] ;
228 -> 230 ;
231 [label="X[11] <= 54.6\nmse = 3121040.555\nsamples = 11\nvalue = 16059.106"] ;
213 -> 231 ;
232 [label="X[3] <= 1.5\nmse = 1590077.249\nsamples = 8\nvalue = 16906.646"] ;
231 -> 232 ;
233 [label="X[15] <= 176.0\nmse = 279788.583\nsamples = 6\nvalue = 16282.5"] ;
232 -> 233 ;
234 [label="X[12] <= 2996.0\nmse = 134152.96\nsamples = 5\nvalue = 16099.2"] ;
233 -> 234 ;
235 [label="X[15] <= 161.5\nmse = 841.0\nsamples = 2\nvalue = 16529.0"] ;
234 -> 235 ;
236 [label="mse = 0.0\nsamples = 1\nvalue = 16500.0"] ;
235 -> 236 ;
237 [label="mse = 0.0\nsamples = 1\nvalue = 16558.0"] ;
235 -> 237 ;
238 [label="X[19] <= 9.25\nmse = 17774.222\nsamples = 3\nvalue = 15812.667"] ;
234 -> 238 ;
239 [label="X[15] <= 166.0\nmse = 900.0\nsamples = 2\nvalue = 15720.0"] ;
238 -> 239 ;
240 [label="mse = 0.0\nsamples = 1\nvalue = 15750.0"] ;
239 -> 240 ;
241 [label="mse = 0.0\nsamples = 1\nvalue = 15690.0"] ;
239 -> 241 ;
242 [label="mse = 0.0\nsamples = 1\nvalue = 15998.0"] ;
238 -> 242 ;
243 [label="mse = 0.0\nsamples = 1\nvalue = 17199.0"] ;
233 -> 243 ;
244 [label="X[11] <= 50.85\nmse = 846246.367\nsamples = 2\nvalue = 18779.084"] ;
232 -> 244 ;
245 [label="mse = 0.0\nsamples = 1\nvalue = 19699.0"] ;
244 -> 245 ;
246 [label="mse = 0.0\nsamples = 1\nvalue = 17859.167"] ;
244 -> 246 ;
247 [label="X[12] <= 3195.5\nmse = 180000.0\nsamples = 3\nvalue = 13799.0"] ;
231 -> 247 ;
248 [label="mse = 0.0\nsamples = 2\nvalue = 13499.0"] ;
247 -> 248 ;
249 [label="mse = 0.0\nsamples = 1\nvalue = 14399.0"] ;
247 -> 249 ;
250 [label="X[16] <= 2.0\nmse = 22498665.88\nsamples = 11\nvalue = 34425.227"] ;
0 -> 250 [labeldistance=2.5, labelangle=-45, headlabel="False"] ;
251 [label="X[9] <= 192.75\nmse = 11587608.111\nsamples = 9\nvalue = 36105.5"] ;
250 -> 251 ;
252 [label="X[18] <= 3.105\nmse = 6305392.84\nsamples = 5\nvalue = 34048.9"] ;
251 -> 252 ;
253 [label="X[10] <= 67.75\nmse = 648522.667\nsamples = 3\nvalue = 36028.0"] ;
252 -> 253 ;
254 [label="mse = 0.0\nsamples = 1\nvalue = 37028.0"] ;
253 -> 254 ;
255 [label="X[15] <= 280.0\nmse = 222784.0\nsamples = 2\nvalue = 35528.0"] ;
253 -> 255 ;
256 [label="mse = 0.0\nsamples = 1\nvalue = 35056.0"] ;
255 -> 256 ;
257 [label="mse = 0.0\nsamples = 1\nvalue = 36000.0"] ;
255 -> 257 ;
258 [label="X[20] <= 235.0\nmse = 102560.062\nsamples = 2\nvalue = 31080.25"] ;
252 -> 258 ;
259 [label="mse = 0.0\nsamples = 1\nvalue = 30760.0"] ;
258 -> 259 ;
260 [label="mse = 0.0\nsamples = 1\nvalue = 31400.5"] ;
258 -> 260 ;
261 [label="X[1] <= 6.5\nmse = 6294617.188\nsamples = 4\nvalue = 38676.25"] ;
251 -> 261 ;
262 [label="X[10] <= 69.4\nmse = 4049072.222\nsamples = 3\nvalue = 39718.333"] ;
261 -> 262 ;
263 [label="mse = 0.0\nsamples = 1\nvalue = 41315.0"] ;
262 -> 263 ;
264 [label="X[9] <= 202.55\nmse = 4161600.0\nsamples = 2\nvalue = 38920.0"] ;
262 -> 264 ;
265 [label="mse = 0.0\nsamples = 1\nvalue = 36880.0"] ;
264 -> 265 ;
266 [label="mse = 0.0\nsamples = 1\nvalue = 40960.0"] ;
264 -> 266 ;
267 [label="mse = 0.0\nsamples = 1\nvalue = 35550.0"] ;
261 -> 267 ;
268 [label="X[5] <= 2.5\nmse = 1721344.0\nsamples = 2\nvalue = 26864.0"] ;
250 -> 268 ;
269 [label="mse = 0.0\nsamples = 1\nvalue = 25552.0"] ;
268 -> 269 ;
270 [label="mse = 0.0\nsamples = 1\nvalue = 28176.0"] ;
268 -> 270 ;
}